-0.0408402 0.688855 -0.258701 -0.0156818 -0.122849 0.864987 0.743619 0.730597 -0.21649 -0.106439 0.377801 0.627489 0.825053 0.992067 0.674355 0.732384 -0.288487 0.727064 -0.100287 -0.00888033 -0.13484 0.960772 -0.233808 0.684294 -0.204136 0.126071 0.797713 -0.00617647 0.414192 0.364343 0.220305 0.406157 0.462555 -0.0983524 0.417607 0.557816 0.632017 0.192425 0.0703396 0.583986 0.782194 0.329072 0.782372 0.0700673 0.237207 0.433657 0.0965993 0.376176 0.752647 0.236863 -0.552039 0.230391 -0.598396 -0.238516 -0.247043 0.585153 0.581699 0.550967 -0.702699 -0.234812 -0.0806732 0.426534 0.494744 0.621059 0.468507 0.278689 -0.300581 0.27463 -0.50823 -0.437309 -0.228504 0.577629 -0.271426 0.251573 -0.374607 -0.282638 0.44839 -0.366505 0.0111077 -0.0236521 0.320045 0.340023 0.322152 -0.48094 0.00357077 0.149895 0.338927 0.27011 0.289073 0.300802 0.466208 -0.0775425 0.442102 -0.295853 -0.16062 0.0154411 0.274017 -0.0196829 0.438183 -0.146421 -0.0442688 0.701426 -0.245843 -0.0113961 -0.108278 0.861273 0.76219 0.741169 -0.228776 -0.123868 0.366658 0.645489 0.830767 0.997781 0.668355 0.736955 -0.276772 0.705349 -0.0897154 -0.0180232 -0.131411 0.973915 -0.217523 0.698865 -0.214707 0.397988 0.466104 0.384468 0.622053 0.665189 -0.208694 -0.0135148 0.0539528 0.282127 0.695355 0.450847 0.226917 -0.218118 -0.384343 0.172623 0.440795 0.713524 0.442924 0.365496 0.439914 0.727209 -0.353555 0.753981 0.460248 0.568637 -0.674397 -0.573608 -0.562219 -0.668423 -0.620814 0.367134 0.197257 0.108983 -0.585489 -0.650133 -0.619346 -0.173483 0.314891 0.57129 -0.0966222 -0.514362 -0.603939 -0.474028 -0.582012 -0.660231 -0.655303 0.500173 -0.603316 -0.504216 -0.589471 -0.268259 -0.207712 -0.224462 -0.239338 -0.213962 0.280823 0.251391 0.233386 -0.224902 -0.240097 -0.235425 0.133892 0.223205 0.333414 0.16799 -0.17152 -0.190467 -0.146044 -0.203235 -0.244118 -0.226802 0.304755 -0.226029 -0.174038 -0.208471 -0.384709 -0.335895 -0.322328 -0.423942 -0.383709 0.116597 -0.0187057 -0.134688 -0.348873 -0.410322 -0.367635 -0.280232 0.0919716 0.261876 -0.238041 -0.308843 -0.3669 -0.299984 -0.353349 -0.394113 -0.404501 0.207132 -0.37043 -0.314178 -0.364999 -0.095576 0.465039 -0.161263 0.272585 0.212917 -0.205683 0.0527813 0.154274 -0.254342 0.274584 0.315841 0.416199 -0.1998 -0.485901 0.298137 0.406638 0.211678 0.418185 -0.126503 0.0782377 0.284374 -0.449732 0.226466 0.387037 0.113512 -0.0680706 -0.852588 0.518459 0.0886109 0.164723 -1.08763 -1.14427 -1.15561 0.292363 0.202339 -0.443006 -1.36695 -0.933513 -0.762373 -1.32414 -1.12342 0.382068 -1.12302 -0.00176675 -0.0905259 0.223945 -0.785479 0.297729 -0.962588 0.31804 0.243933 0.35896 0.149373 0.162179 0.15514 0.442845 0.335376 0.321138 0.151418 0.158737 0.281404 0.240103 0.40251 0.54567 0.278135 0.391842 0.138823 0.380758 0.197142 0.199255 0.154712 0.547474 0.163996 0.37561 0.137637 -0.0280398 0.131819 -0.0770898 -0.0660163 -0.0648221 0.704525 0.557052 0.525096 -0.0751978 -0.0902167 0.00397854 0.331138 0.649144 0.879941 0.432697 0.190608 -0.090502 0.189001 -0.00266407 -0.0765771 -0.0995186 0.823657 -0.0891756 0.192143 -0.0842631 -0.424407 0.353531 -0.584171 -0.436766 -0.509987 0.965298 0.706913 0.593623 -0.595935 -0.530476 -0.0278341 0.339256 0.89331 1.23223 0.418314 0.391827 -0.654815 0.402794 -0.459064 -0.402422 -0.547341 1.1559 -0.623667 0.372115 -0.613135 0.523076 1.72579 0.274618 0.504516 0.458365 -0.370696 -0.276486 -0.0991819 0.386082 0.51729 1.35423 1.0349 -0.342145 -0.601693 0.712858 1.38043 0.472715 1.41552 0.400074 0.523315 0.516674 -0.533369 0.499226 1.44792 0.398043 -0.514572 -1.85234 -0.0295095 -0.222318 -0.133583 -0.799234 -0.853076 -1.04087 -0.321368 -0.133011 -1.16181 -1.97339 -0.721572 -0.683989 -1.77293 -2.10143 0.0278418 -2.09141 -0.392458 -0.452778 -0.106593 -0.709683 -0.0382893 -1.90809 -0.0357095 -0.106167 -0.927857 0.411073 0.142394 0.222279 -0.962661 -0.670112 -0.579589 0.22494 0.239084 -0.699389 -0.647175 -0.862649 -0.94923 -0.583152 -0.686743 0.406819 -0.698019 -0.0118856 -0.0485168 0.266505 -0.937502 0.326209 -0.734822 0.326212 -0.746245 -7.40649e-05 -0.262639 -0.280656 -0.283317 0.117319 0.493285 0.54262 -0.406734 -0.257201 -0.477851 0.728418 -0.00545876 -0.239252 0.665247 0.324529 -0.156458 0.357125 -0.617148 -0.510279 -0.2461 -0.227583 -0.241511 0.173289 -0.166091 -0.451242 -0.316669 -0.439574 -0.160618 -0.0981017 0.114045 0.366656 0.354021 -0.511899 -0.0956867 -0.591092 0.346223 0.024118 -0.0777332 0.380105 0.233215 -0.0523826 0.207675 -0.368748 -0.359159 -0.0820903 -0.105314 -0.0303999 0.0359432 -0.21319 0.469377 0.438306 0.473714 0.383587 0.369296 -0.189571 -0.424305 -0.451043 0.437439 0.406148 0.662589 -0.419824 -0.141122 -0.0464477 -0.437809 -0.0969776 0.404149 -0.0850209 0.375753 0.396104 0.410798 -0.0522516 0.380522 0.12327 0.403113 -0.361745 -1.8274 0.191921 -0.164034 -0.0769191 -1.16539 -1.33815 -1.47757 -0.0313718 -0.0467238 -1.09213 -2.17887 -1.0424 -0.985858 -2.04833 -2.20352 0.138589 -2.17275 -0.261707 -0.347021 -0.0235804 -1.00232 0.046247 -1.9516 0.0807945 -0.516231 0.169768 -1.19411 -0.517879 -0.607011 1.11412 0.940963 0.866562 -1.09903 -0.62865 -0.143585 0.557897 1.05872 1.3523 0.670145 0.415393 -0.881868 0.391688 -0.536836 -0.476412 -0.670182 1.29248 -0.748527 0.329698 -0.89283 -0.518574 -0.407839 -1.05708 -0.564785 -0.550698 0.959371 0.762682 0.675061 -0.948877 -0.586999 -0.498264 0.269261 0.886243 1.23389 0.411916 -0.0929537 -0.694169 -0.137233 -0.488642 -0.528681 -0.620003 1.13879 -0.605894 -0.193881 -0.770957 -0.382424 -0.346752 -0.317757 -0.418227 -0.39628 0.123454 -0.0255628 -0.130403 -0.358873 -0.402322 -0.391064 -0.28709 0.0942573 0.248448 -0.254612 -0.3277 -0.379471 -0.325698 -0.359349 -0.381827 -0.40193 0.198561 -0.375288 -0.308178 -0.387285 -0.129116 -0.0467024 0.503282 0.124188 0.195936 -0.712048 -0.612503 -0.666527 0.288356 0.225613 -0.0921558 -0.522917 -0.709213 -0.801062 -0.614241 -0.269171 0.450854 -0.263284 -0.106937 -0.106606 0.277122 -0.789898 0.346985 -0.177409 0.375124 0.397702 0.475247 0.385611 0.630053 0.650618 -0.20098 -0.0198005 0.0379528 0.254413 0.703641 0.458561 0.201774 -0.225547 -0.382343 0.178052 0.441938 0.730952 0.435495 0.375496 0.436771 0.74178 -0.336698 0.744552 0.443391 0.567208 -0.271059 0.353038 -0.380645 -0.172718 -0.267989 0.449856 0.427386 0.43803 -0.351908 -0.253462 0.127826 0.420814 0.428828 0.458968 0.409934 0.360542 -0.376738 0.355448 -0.276857 -0.170707 -0.275552 0.45044 -0.362376 0.331256 -0.325202 -0.270259 -0.207427 -0.223891 -0.238195 -0.200534 0.275966 0.243677 0.226815 -0.203473 -0.224954 -0.234282 0.108464 0.238062 0.332271 0.170562 -0.163234 -0.197325 -0.149187 -0.191235 -0.252975 -0.243088 0.289898 -0.217457 -0.173752 -0.200186 -0.389281 -0.327895 -0.3349 -0.403084 -0.394566 0.110883 -0.01442 -0.10926 -0.356016 -0.389179 -0.385349 -0.284518 0.102829 0.260448 -0.240041 -0.310843 -0.362328 -0.303412 -0.362491 -0.381541 -0.414501 0.199132 -0.371573 -0.307321 -0.378428 0.275022 0.319193 0.848753 0.528987 0.596788 -0.800645 -0.572369 -0.521839 0.651801 0.648221 0.310051 -0.226399 -0.781756 -1.05751 -0.347629 0.0431005 0.834611 0.0647002 0.263269 0.317221 0.67848 -1.00046 0.752272 0.153627 0.770695 0.158394 0.164626 -0.473713 0.0987808 0.08983 0.610522 0.57314 0.592649 -0.365959 0.0719912 0.134224 0.465887 0.587638 0.672881 0.523966 0.402837 -0.0990874 0.365938 0.102227 0.136407 0.0710142 0.664046 0.00199409 0.331193 -0.170629 -0.14133 0.578858 -0.25121 0.173997 0.142952 0.474556 0.625262 0.688798 -0.328968 0.174653 0.292962 0.721909 0.409915 0.374039 0.712833 0.610388 0.103176 0.609757 -0.159167 -0.0271966 0.182569 0.374497 0.132719 0.553466 0.0195349 0.144872 0.223534 0.151149 0.381286 0.439798 0.0741286 0.19959 0.257053 0.0292257 0.474115 0.197993 0.334523 0.0153726 -0.0763577 0.323756 0.260132 0.508771 0.262594 0.140833 0.164939 0.471835 -0.0590864 0.49538 0.245067 0.352736 -0.265837 -0.118075 -0.200322 -0.0332267 0.0412322 0.171297 0.160885 0.138365 -0.317933 0.0560792 -0.192785 0.0385766 0.0939156 0.181804 0.0485726 -0.0638532 0.115299 -0.0728181 -0.226516 -0.226602 0.0581912 0.139474 0.119521 -0.0668253 -0.031977 0.169537 0.156911 -0.465428 0.0847808 0.0709728 0.597094 0.590854 0.58122 -0.357959 0.0825626 0.15051 0.457315 0.592781 0.683167 0.529966 0.417123 -0.109659 0.356224 0.101085 0.142121 0.0470142 0.662046 0.00142266 0.334336 -0.177772 0.115172 -0.268884 -0.35106 0.0839789 -0.0950655 0.326614 0.0118326 0.508204 -0.0281105 0.22056 -0.490811 -0.44646 -0.512237 0.0165148 -0.109406 -0.472963 0.0387767 -0.0249728 -0.61658 -0.650306 0.304115 -0.621138 0.566153 -0.682961 -0.208712 -0.173047 -0.0843294 -0.156443 -0.619618 0.115162 0.232461 -0.689104 -0.799606 0.220706 0.126262 0.817938 0.183061 0.637275 0.178414 0.458503 -0.509672 -0.495754 -0.525096 0.204743 -0.118687 0.13446 -0.328049 -0.417095 0.10507 0.0463439 0.321307 0.0995867 0.535161 0.0971409 0.216689 -0.516036 -0.437652 -0.469028 0.090554 -0.0752741 0.176169 -0.347232 -0.459679 0.161452 0.10538 0.311201 0.141607 0.52718 0.123344 0.229978 -0.528147 -0.434194 -0.484263 0.157999 -0.064814 -0.176776 0.936348 1.01137 -0.0770653 0.0831705 -0.631643 0.0636246 -0.399994 0.107898 -0.814118 0.312832 0.263886 0.3182 -0.0125496 0.200855 -0.293009 0.813158 0.824369 -0.211174 0.0479273 -0.510837 -0.0848128 -0.270854 -0.0597434 -0.8334 0.331914 0.274175 0.320979 -0.15613 0.358945 -0.37512 0.812163 0.805874 -0.253493 -0.0376241 -0.473827 -0.164104 -0.23648 -0.160187 -0.816667 0.33648 0.317246 0.314354 -0.209692 0.387987 0.209051 -0.58629 -0.703799 0.158432 0.0718077 0.706549 0.152296 0.618424 0.17048 0.383674 -0.555285 -0.507347 -0.536444 0.175317 -0.123334 0.183105 -0.359715 -0.46501 0.174818 0.0670629 0.35869 0.139898 0.549973 0.130219 0.259689 -0.553177 -0.460595 -0.511972 0.138309 -0.0761508 -0.141148 -0.13969 -0.218912 -0.315078 -0.510003 0.267813 -0.38766 0.546494 -0.450975 0.0919592 -0.367024 -0.319922 -0.377604 -0.349725 -0.0895816 -0.692384 0.588088 0.484947 -0.651533 -0.308258 -0.258281 -0.526517 0.0479011 -0.597277 -0.814395 0.332911 0.354979 0.359861 -0.573078 0.450259 -0.0860688 0.814908 0.912987 -0.0276841 0.12597 -0.528318 0.0395294 -0.350464 0.0694531 -0.652559 0.331937 0.221154 0.271563 0.0279424 0.165589 -0.0702883 1.11707 1.30095 0.0830304 0.201068 -0.802155 0.159223 -0.604249 0.200827 -0.811048 0.336589 0.260374 0.318612 0.118886 0.166681 -0.596704 0.676853 0.606117 -0.505314 -0.204958 -0.3051 -0.404251 -0.0332432 -0.466745 -0.817172 0.328086 0.35454 0.352519 -0.437287 0.45259 -0.686702 0.353885 0.305094 -0.673858 -0.501422 0.0313178 -0.630024 0.309678 -0.736373 -0.591509 0.131659 0.175041 0.135294 -0.650094 0.337036 0.241021 -0.50776 -0.638323 0.248819 0.16542 0.503747 0.185935 0.621373 0.188343 0.355852 -0.609678 -0.542337 -0.609873 0.222684 -0.109344 -0.679288 0.323204 0.284792 -0.694242 -0.50645 0.0458787 -0.627709 0.311308 -0.706825 -0.565183 0.107348 0.204888 0.147072 -0.656228 0.342933 0.135636 -0.282366 -0.385202 0.132717 0.0216971 0.303843 0.0456385 0.430621 0.0275653 0.234245 -0.461363 -0.401584 -0.467192 0.0870989 -0.0675124 0.133439 -0.264214 -0.408711 0.0669494 -0.03217 0.276065 0.0262817 0.510666 0.06642 0.227077 -0.482065 -0.429055 -0.472761 0.0648956 -0.0771898 0.157248 -0.393964 -0.48322 0.165636 0.06851 0.3785 0.14945 0.564019 0.135681 0.255688 -0.559645 -0.493115 -0.556765 0.150185 -0.0859755 -0.0601917 1.02426 1.19929 0.0485764 0.141578 -0.715248 0.147936 -0.510827 0.201044 -0.761517 0.291651 0.250281 0.287542 0.0986941 0.140368 0.221492 -0.43781 -0.552945 0.213297 0.146472 0.388378 0.154068 0.55692 0.155382 0.279014 -0.59615 -0.510257 -0.588258 0.196101 -0.0953969 -0.521533 0.193533 0.133035 -0.593449 -0.493889 0.174281 -0.556349 0.435395 -0.643473 -0.389853 -0.0328863 0.0506794 -0.0168246 -0.585103 0.185293 0.217271 -0.518678 -0.645608 0.191242 0.0946362 0.524469 0.159932 0.615466 0.197238 0.321614 -0.571923 -0.482356 -0.542968 0.183771 -0.106643 -0.714495 -0.499164 -0.500709 -0.667507 -0.0434134 -0.644046 0.32632 -0.692458 -0.251656 -0.56599 0.263737 -0.792096 0.217808 0.700096 -0.170224 0.0258686 0.656443 -1.01454 0.268418 -0.911514 -0.712582 -1.1452 -0.80328 0.190882 0.901825 -0.450759 0.00695484 0.890974 -0.960706 0.238582 -0.961792 -0.915626 -1.06486 -0.778694 -0.414953 -0.445469 -0.678511 0.0795646 -0.561663 0.325283 -0.680718 -0.284229 -0.603717 0.111168 -0.767132 -0.229467 -0.459082 -0.571783 0.207772 -0.53173 0.0753382 -0.551631 -0.351749 -0.577303 -0.327592 -0.891433 -1.15334 -0.939234 0.29552 -1.11732 -0.329618 -0.37627 -1.12323 0.273032 0.40089 0.00940264 -0.792647 -0.358845 -0.441992 -0.647066 0.150839 -0.507952 0.19337 -0.630989 -0.354359 -0.634584 -0.107117 -0.810558 -1.23011 -0.210066 0.261201 -1.36256 -0.20595 -0.417305 -0.903108 0.239616 0.360585 -0.051813 -0.691666 -0.302765 -0.397202 -0.602082 0.31419 -0.444612 0.30182 -0.591696 -0.352989 -0.641105 -0.0707196 -0.795645 -0.758374 -0.862208 -0.799368 -0.673828 -1.0113 0.479182 -0.802656 0.127563 -0.37086 0.844687 -0.737294 0.361542 -0.722529 -0.414773 0.127313 -0.913795 -0.459164 0.295681 -0.450125 -0.438024 -0.484695 -0.786117 0.257459 -0.643108 -0.413207 -0.0223622 -0.93207 -0.495309 0.235943 -0.47145 -0.453891 -0.525657 -0.698003 0.355954 -0.697041 -0.40121 0.0940939 -0.917062 -0.464175 0.295937 -0.455003 -0.440527 -0.497285 -0.810456 -0.405684 -0.456691 -0.672024 0.0928838 -0.544304 0.252762 -0.679643 -0.318824 -0.621115 -0.00522309 -0.711137 0.105036 -0.483148 -0.233099 0.0135266 -0.67608 -0.571932 0.001921 -0.215418 -0.235803 -0.600974 